20 100
</s> 0.004003 0.004419 -0.003830 -0.003278 0.001367 0.003021 0.000941 0.000211 -0.003604 0.002218 -0.004356 0.001250 -0.000751 -0.000957 -0.003316 -0.001882 0.002579 0.003025 0.002969 0.001597 0.001545 -0.003803 -0.004096 0.004970 0.003801 0.003090 -0.000604 0.004016 -0.000495 0.000735 -0.000149 -0.002983 0.001312 -0.001337 -0.003825 0.004754 0.004379 -0.001095 -0.000226 0.000509 -0.003638 -0.004007 0.004555 0.000063 -0.002582 -0.003042 -0.003076 0.001697 0.000201 0.001331 -0.004214 -0.003808 -0.000130 0.001144 0.002550 -0.003170 0.004080 0.000927 0.001120 -0.000608 0.002986 -0.002288 -0.002097 0.002158 -0.000753 0.001031 0.001805 -0.004089 -0.001983 0.002914 0.004232 0.003932 -0.003047 -0.002108 -0.000909 0.002001 -0.003788 0.002998 0.002788 -0.001599 -0.001552 -0.002238 0.004229 0.003912 -0.001180 0.004215 0.004820 0.001815 0.004983 -0.003111 -0.001532 -0.002107 -0.002907 0.002815 0.001579 0.000425 -0.002194 0.001524 0.003059 0.000194
， 0.052087 -0.614936 0.088970 -0.172159 -0.526273 0.259639 -0.335665 0.045193 0.157420 0.181177 -0.014095 0.353838 0.110777 0.170709 -0.304187 -0.452873 0.097638 -0.098294 0.028575 0.316757 0.317279 -0.380435 -0.354822 -0.113392 0.102900 0.090067 0.329494 0.391060 0.192692 0.109502 0.201952 -0.085900 0.053530 -0.352462 -0.018435 0.103693 -0.149104 -0.019381 0.292347 -0.298332 0.288381 0.137341 -0.011853 -0.366711 -0.022126 0.108274 -0.318587 0.055061 0.224377 0.101114 -0.501951 -0.146036 0.099888 0.069513 -0.282935 0.077608 0.054380 0.072406 -0.230099 0.026826 -0.107401 -0.357905 0.418697 0.019738 0.261078 -0.149188 0.323891 -0.275999 0.061689 0.098377 0.520609 -0.028602 -0.200217 -0.087271 -0.198036 0.222115 0.095507 -0.194199 0.012423 0.050667 0.267609 0.205376 -0.199738 -0.232529 -0.155392 -0.147018 -0.126638 -0.261742 -0.175615 0.012837 -0.201284 -0.107651 0.181050 0.079055 0.169144 -0.082136 -0.015442 0.288646 -0.068158 -0.272373
, 0.166037 -0.182050 0.359671 0.270986 -0.205798 0.264839 -0.232640 -0.421366 0.433834 0.207671 -0.123263 0.227144 0.069091 0.104486 0.287401 -0.169654 -0.022846 -0.226401 0.011649 0.323218 0.119295 -0.225563 -0.382357 -0.414077 0.202842 0.342015 0.037196 0.377447 0.015729 0.101465 0.158414 -0.193911 -0.077691 -0.152128 -0.257261 -0.033290 -0.041329 0.252907 -0.030426 -0.159754 0.149879 0.095961 0.396951 -0.268115 0.211514 0.198374 -0.144257 0.422621 0.304120 0.006304 -0.134682 -0.184179 0.104166 -0.329298 -0.386333 0.215655 0.163147 0.569738 0.090207 -0.383765 -0.048478 -0.178453 0.011031 0.182614 -0.105294 0.007167 0.366945 -0.132757 0.173707 0.163156 0.098528 0.351378 -0.158436 0.059312 -0.181231 0.330361 -0.096708 -0.189825 -0.204453 0.129771 0.343346 0.009867 -0.000515 -0.186200 -0.188572 -0.348254 -0.407185 -0.076138 0.065673 -0.020327 0.267123 0.114968 0.248008 0.284749 -0.380749 -0.381126 0.072823 0.041042 0.432534 -0.367238
的 0.128561 -0.408564 0.163404 -0.093963 -0.502654 0.462832 -0.480001 -0.170521 -0.021549 0.201148 -0.104719 0.295906 -0.067657 0.289525 -0.190393 -0.242809 -0.096226 -0.055599 0.197508 0.198364 0.213826 -0.284146 -0.340802 -0.217021 0.004642 0.064523 0.211135 0.457739 0.066030 0.072729 0.222939 -0.176866 0.045892 -0.348881 -0.028640 0.198803 -0.029640 -0.063559 0.275478 -0.344401 0.221493 0.094536 0.211719 -0.223666 -0.018705 -0.076392 -0.091671 0.155163 0.145654 -0.133599 -0.624555 -0.028108 0.177208 -0.215475 -0.307089 0.071108 0.073937 0.141954 -0.023032 -0.383218 0.000859 -0.272620 0.402182 0.250333 -0.075715 -0.207602 0.418274 -0.176414 -0.030899 0.114414 0.453429 0.006163 -0.028089 0.018109 -0.292089 0.232536 -0.046913 -0.084368 -0.102886 0.044500 0.220862 0.228213 -0.083925 -0.473358 -0.180623 -0.268665 -0.139859 -0.193682 -0.069109 0.056202 -0.075119 -0.091425 0.288541 -0.179496 -0.007335 -0.073198 -0.078585 0.202325 0.211768 -0.389154
。 0.034706 -0.636206 0.043472 -0.206224 -0.410420 0.230870 -0.571322 0.032280 0.145195 0.333242 0.048150 0.446928 0.080884 0.034644 -0.173101 -0.202100 0.019076 -0.075435 0.099310 0.254751 0.631015 -0.331599 -0.316731 0.003154 0.071085 0.318547 0.273952 0.382833 0.097024 0.265631 0.062230 -0.227702 -0.058195 -0.483129 0.070706 0.090942 -0.100057 -0.125360 0.038456 -0.305964 0.284381 0.067689 0.164708 -0.172403 0.092329 0.145093 -0.145436 0.230580 0.258235 -0.001015 -0.593324 -0.156812 -0.004384 -0.072373 -0.215770 0.035106 0.067018 0.179077 -0.158626 0.102720 -0.132069 -0.265236 0.458035 0.046473 0.123592 -0.092797 0.346959 -0.220289 0.303945 0.251601 0.318044 0.221258 -0.019724 -0.203880 -0.251754 -0.028233 0.044698 -0.210672 -0.072380 -0.035255 0.178973 0.320280 0.063825 -0.395762 -0.214844 -0.293475 -0.203210 -0.264986 -0.110563 -0.031403 -0.275715 -0.205107 0.076791 0.092916 0.330175 -0.095977 0.065252 0.368627 0.221186 -0.329885
、 0.133695 -0.635637 0.282632 0.058069 -0.157309 0.447204 -0.643623 -0.299802 0.331071 -0.224775 -0.131120 0.522837 -0.242301 0.370370 0.058513 -0.342507 -0.065774 -0.249467 -0.086739 0.056243 0.055320 -0.240321 -0.768846 -0.299157 0.174115 0.208463 0.037234 0.356589 -0.040751 -0.089931 -0.028526 -0.460339 0.245292 -0.357264 -0.091395 0.070803 -0.115516 0.199360 -0.158077 -0.280559 0.249405 0.173955 0.411684 -0.316958 0.089243 0.135105 -0.222439 -0.026179 0.326678 -0.027179 -0.304134 -0.189487 0.150966 -0.276798 -0.319887 -0.070053 -0.102294 0.362225 -0.256879 -0.253439 -0.061697 -0.233377 0.107521 0.102188 -0.416319 -0.191234 0.290767 -0.140342 -0.076659 -0.004411 0.427469 -0.006840 -0.153958 0.089878 -0.254830 0.223044 0.172126 -0.237363 -0.442472 0.095023 -0.076321 0.080337 0.004024 -0.400778 -0.782572 -0.197092 -0.229299 -0.210761 0.139739 -0.078539 0.255280 0.077499 -0.135387 0.104755 0.046744 -0.148232 -0.076387 0.243303 0.302769 -0.262509
了 0.100075 -0.375134 -0.007729 -0.166257 -0.557432 0.206259 -0.446519 0.013136 0.167342 0.304598 -0.073091 0.360599 0.080941 -0.015375 -0.049902 -0.089724 0.026590 -0.151120 0.008264 0.335968 0.285714 -0.530147 -0.426985 -0.068515 0.123084 0.208824 0.072489 0.533746 0.120799 0.231689 0.271002 -0.331795 0.067226 -0.462821 -0.023525 0.304589 -0.080698 0.041181 0.167420 -0.217322 0.340875 0.001474 -0.011016 -0.228807 -0.103092 0.064115 -0.096555 0.157691 0.229950 0.137569 -0.576072 -0.127709 0.163138 -0.123048 -0.125806 -0.089371 0.147621 0.248271 -0.122192 -0.011217 -0.074486 -0.202043 0.275918 0.107671 0.046413 0.045842 0.507360 -0.312981 0.284534 0.178264 0.360864 0.060204 -0.065399 -0.137882 -0.222749 0.087136 0.034305 -0.029049 0.080760 0.217942 0.195524 0.431497 -0.146427 -0.321139 -0.101548 -0.427724 -0.227588 -0.048708 -0.070406 -0.062460 -0.248225 -0.371932 0.283383 0.033084 -0.162840 0.143965 -0.083709 0.421560 -0.047755 -0.164494
： 0.254612 -1.107764 -0.177250 -0.297359 0.103150 0.192406 -0.542468 -0.017438 0.907654 0.512144 -0.043299 0.129671 0.250051 0.272723 -0.316155 -0.103586 0.405464 -0.017728 0.285218 -0.017608 0.176502 -0.197404 -0.750098 -0.238371 -0.243627 0.092025 0.619759 0.096262 -0.123006 0.194337 0.387745 0.353942 -0.080377 -0.233613 -0.218710 -0.011610 -0.223347 0.383824 -0.009301 -0.035940 0.630492 0.193307 -0.408823 -0.378011 -0.363213 0.330433 -0.166322 0.217256 -0.089046 0.223625 -0.439585 -0.172273 0.086390 -0.149732 -0.430498 0.265112 0.105720 0.087871 -0.193352 0.342021 -0.314433 -0.006605 0.559432 -0.111809 0.387726 -0.243192 0.296910 -0.829804 -0.285909 0.119902 0.462147 0.126219 0.389720 0.295745 -0.233902 0.086604 0.439992 -0.454383 -0.278780 0.095565 0.292128 0.026326 -0.199860 0.066700 -0.286547 -0.338803 -0.011335 -0.604481 0.089589 0.021957 -0.419235 -0.217565 0.054369 0.478975 0.184361 -0.049954 -0.197128 0.544656 -0.651537 -0.103164
“ 0.160455 -0.930187 -0.007860 -0.175564 0.013131 0.174490 -0.361232 0.012510 0.662311 0.647283 -0.274158 0.121266 0.160640 0.278937 -0.209730 -0.332502 0.526009 -0.103267 0.263655 0.103946 -0.163236 -0.264117 -0.640010 -0.213265 -0.120882 -0.159904 0.478711 0.265464 0.033125 0.158646 0.384156 0.241206 -0.043722 -0.264347 -0.267122 0.101967 -0.364725 0.385576 -0.029194 -0.118823 0.616129 0.124587 -0.465927 -0.552764 -0.362961 0.040767 -0.098581 -0.095167 0.072827 0.350449 -0.403573 -0.032572 0.313040 0.001025 -0.333928 0.145044 0.166403 0.234345 -0.190747 0.097665 -0.356934 -0.035865 0.604773 0.018771 0.410799 -0.293557 0.267336 -0.605162 -0.075794 -0.199745 0.496171 0.044918 0.192772 0.334341 -0.083089 0.173111 0.383648 -0.513586 -0.342086 0.142603 0.492985 0.026818 -0.453069 -0.229057 -0.033034 -0.185981 -0.009062 -0.400692 0.058180 -0.158795 -0.367378 -0.161782 0.227652 0.305998 0.184475 -0.081203 -0.181300 0.209476 -0.549672 -0.267534
” 0.101360 -0.773374 -0.029976 -0.131337 -0.373486 0.134386 -0.701272 0.044871 0.066320 0.521401 -0.160767 0.506892 0.158391 0.025113 -0.128128 -0.199744 0.082933 0.183717 -0.382132 0.283318 0.342196 -0.086081 -0.185996 0.305607 0.186404 0.134388 0.144801 0.356919 0.222572 0.318703 -0.022427 -0.160401 0.072298 -0.847051 -0.055489 0.308184 -0.261708 -0.349147 -0.263261 -0.296326 -0.040124 -0.055282 0.221059 -0.129767 0.165710 0.053081 0.120409 -0.171686 0.597530 0.123102 -0.237906 -0.359479 0.006706 -0.187721 -0.191050 -0.252933 0.173962 0.297597 -0.100429 0.365941 -0.156705 -0.208575 0.485061 0.354686 0.178728 -0.213873 0.307122 0.156074 0.513127 -0.126718 0.399580 0.279437 -0.137734 -0.400572 -0.408034 0.042276 0.168576 -0.294719 -0.328863 0.074320 0.351729 0.418805 -0.095425 -0.901131 -0.143364 -0.476209 -0.347625 -0.358926 -0.155043 -0.230495 -0.343478 -0.113643 0.229096 0.324690 0.714714 0.043540 0.057991 0.006068 0.231120 -0.408277
在 -0.023757 -0.672801 0.205060 0.122484 -0.283696 0.126816 -0.338560 -0.366196 -0.140280 0.163856 -0.273226 0.302289 -0.366042 0.100552 -0.068088 -0.223621 -0.000517 -0.513765 -0.064805 0.426581 0.226173 -0.167564 -0.305102 -0.280231 -0.186875 0.512405 0.088329 0.369885 0.254232 0.126990 0.299989 -0.194866 -0.046438 -0.306426 -0.214111 0.411233 -0.337369 -0.329965 0.055958 -0.199928 0.237372 -0.075122 0.058992 -0.139631 -0.031172 0.071460 -0.339464 0.182271 0.036269 0.027951 -0.334773 -0.131604 -0.078827 -0.223707 -0.615230 0.023170 -0.152295 -0.050329 0.072335 -0.767729 -0.341854 -0.131127 0.310305 0.164967 -0.028826 -0.029792 0.422471 -0.188582 0.240902 0.230583 0.475915 -0.021343 -0.187650 -0.036118 -0.177582 0.439565 0.092671 -0.172280 0.066457 0.072725 0.205471 0.086394 0.085134 -0.474227 -0.108457 -0.396203 -0.195523 -0.340125 -0.173953 0.348431 0.024943 -0.224044 -0.143452 0.041246 0.116521 -0.025188 -0.357860 0.442372 -0.038332 -0.408168
_ -0.127544 -0.478567 0.286532 0.566159 0.484680 0.237616 -0.277895 -0.163607 0.133001 0.342368 -0.499288 0.784880 0.145289 -0.066419 0.263396 0.203860 0.050155 -0.100829 -0.005109 0.055405 0.159954 -0.040371 -0.335570 -0.257855 0.204352 0.110292 0.080270 0.021682 -0.268570 0.477582 0.219003 -0.187731 -0.041426 -0.561854 -0.422965 0.147006 0.108130 -0.055687 0.252945 -0.461975 0.314013 0.093498 0.620314 -0.309960 -0.022988 0.000406 0.249665 0.431452 0.544503 -0.031635 -0.280854 -0.499539 0.327025 -0.594617 -0.098307 0.367677 0.483354 0.440707 0.085360 -0.278977 0.280980 0.266420 0.405750 0.300371 -0.054955 -0.163290 0.333756 0.083013 0.133218 -0.032303 -0.180875 0.330031 -0.301484 -0.151331 -0.379075 0.125273 -0.291500 -0.165377 -0.389458 -0.104953 -0.194795 0.048323 -0.203261 -0.259082 -0.218323 -0.410141 -0.501950 -0.072964 0.189440 -0.091753 -0.320818 -0.011235 0.146038 0.597407 0.323568 -0.075526 -0.033869 0.086606 0.355403 -0.102458
是 0.254297 -0.246311 0.004492 -0.013587 -0.231246 0.274617 -0.460117 -0.163589 0.466169 0.211396 -0.271662 0.462824 0.056384 0.224369 -0.072059 -0.201257 -0.059193 -0.062202 0.185373 0.347467 0.224504 -0.086333 -0.375644 -0.110748 0.008328 0.447434 0.033893 0.340178 0.086443 0.096928 0.238622 -0.402105 -0.159132 -0.186466 -0.362059 0.143506 -0.384151 -0.087245 0.108734 -0.214066 0.058658 0.203426 0.283602 -0.285640 0.182566 -0.017015 -0.196798 0.044865 0.088390 -0.181889 -0.298458 -0.122646 0.130330 -0.052620 -0.700824 -0.083039 0.060513 0.091883 0.052565 -0.369553 -0.076121 0.021806 0.237119 0.029656 0.034680 0.059482 0.425469 -0.305500 -0.105415 0.236302 0.456413 0.208042 0.069001 0.299875 -0.009522 0.547691 -0.061917 0.020048 -0.249383 0.048009 0.531741 0.114982 -0.135669 -0.237428 -0.374833 -0.468027 -0.266531 -0.174682 -0.191661 0.104604 -0.011338 -0.089216 0.079891 0.120790 0.017950 -0.246218 -0.031957 0.253641 -0.162876 -0.276653
和 0.243157 -0.446319 0.268536 0.082167 -0.237165 0.433208 -0.544340 -0.271920 0.106181 0.175127 -0.244441 0.338918 -0.168350 0.288804 -0.094392 -0.148243 -0.069466 -0.284576 0.161097 0.165401 0.213602 -0.320200 -0.539755 -0.161604 -0.070943 0.150092 0.135028 0.558753 0.000497 0.030962 0.165901 -0.209210 0.126859 -0.553152 0.022197 0.137284 -0.139458 0.108168 -0.017884 -0.130562 0.058703 0.207816 0.125273 -0.336099 0.325622 0.082860 -0.076937 0.036752 0.030545 0.069081 -0.480658 -0.057267 0.100090 -0.079387 -0.475179 0.109223 0.144292 0.326079 -0.084493 -0.403892 -0.079932 -0.294453 0.195597 0.151123 -0.245017 -0.320606 0.393607 -0.083478 -0.249988 0.188392 0.494798 0.009863 -0.062815 0.035695 -0.213425 0.314621 0.064106 -0.262012 -0.259948 0.082991 0.139420 0.058808 0.109337 -0.470980 -0.484538 -0.394557 -0.061721 -0.292121 0.119964 -0.000723 0.095571 -0.020197 -0.025259 -0.282002 -0.062892 0.016947 -0.035451 0.204813 0.118018 -0.161606
- 0.182928 -0.546582 0.118041 0.227449 0.261898 0.266938 -0.378887 -0.394411 0.399978 0.533781 -0.391914 0.510682 0.005614 0.497547 0.412704 0.167257 0.051425 -0.131579 -0.391194 0.272902 -0.021544 0.130217 -0.583669 -0.351719 0.428057 0.462604 0.029858 0.273274 -0.011780 0.396902 0.384725 -0.242285 -0.119260 -0.253133 -0.313762 0.458403 -0.106461 0.111358 -0.041244 -0.245698 0.326783 -0.175484 0.386842 -0.313061 0.018554 0.492410 -0.009709 0.224223 0.135733 -0.038485 -0.162247 -0.131100 0.011451 -0.528569 -0.437428 0.497620 0.260547 0.206575 -0.012334 -0.601788 -0.245289 -0.181052 0.279183 0.373326 -0.518236 0.125776 0.461860 -0.047796 0.179266 0.371971 0.170643 0.329940 -0.575210 0.328857 -0.357561 0.198590 -0.108854 0.010696 -0.246278 -0.082990 0.021794 0.154898 -0.114341 -0.511453 -0.352980 -0.314640 -0.717990 -0.379559 0.213358 0.253736 -0.111498 0.063158 -0.032579 0.441058 0.013607 -0.650269 -0.237584 -0.071708 0.538354 0.066846
？ 0.052781 -0.771538 0.072611 -0.114270 -0.446737 0.036696 -0.672105 -0.319607 0.487290 0.071961 -0.136523 0.274080 0.112904 0.134663 0.113249 -0.118299 -0.233279 -0.216098 0.035494 0.250446 0.200116 0.024611 -0.502350 -0.341106 0.098921 0.427667 0.037727 0.382434 -0.084784 0.163012 0.071001 -0.158953 -0.081253 -0.372732 -0.122655 0.193377 -0.070975 -0.189877 -0.298163 -0.451446 -0.145768 -0.092942 0.145586 -0.329722 0.125620 -0.030685 0.169759 0.013898 0.596538 0.010230 -0.440234 -0.330987 0.006108 -0.098985 -0.449312 0.100707 0.276501 0.357207 0.057169 -0.355691 -0.101836 0.000354 0.426558 0.305213 0.166437 -0.118881 0.320049 -0.082512 0.062325 0.250159 0.467269 0.561131 0.118837 0.007354 0.030669 0.587653 0.124365 -0.136770 -0.219230 0.209290 0.160177 0.153808 0.106852 -0.411967 -0.145053 -0.437024 -0.043841 -0.108648 0.088592 0.008418 -0.051690 -0.136638 0.321903 0.283050 -0.107809 -0.395779 -0.094170 -0.019361 0.358000 -0.312701
＿ 0.169107 -0.668629 0.119260 0.460945 0.403338 -0.022681 -0.093691 0.114722 -0.087017 -0.336776 -0.666915 1.169448 -0.146426 0.281674 0.252868 -0.113155 0.172785 0.412535 -0.211780 -0.178542 -0.051463 0.029370 -0.149094 -0.399857 -0.084170 0.233497 -0.222220 0.799506 -0.074936 -0.102411 0.016789 0.292411 -0.056860 -0.612486 0.031683 -0.090686 -0.201644 -0.101499 0.225959 -0.484008 -0.314197 -0.131814 0.289681 -0.421908 0.099034 0.029677 -0.110944 0.775334 0.264174 0.139184 -0.246305 -0.083320 0.068058 -0.289839 -0.124297 -0.018656 0.850470 0.330433 0.276499 0.006484 0.667433 0.556087 0.678242 -0.198486 -0.199068 -0.263991 0.164469 -0.064419 0.099243 0.079521 0.316421 -0.164458 -0.093560 -0.260714 -0.587939 0.388621 -0.600521 0.295795 -0.439454 0.147121 -0.044406 0.355861 -0.311233 0.213699 -0.564475 -0.241393 -0.632002 -0.166924 0.725396 -0.464308 -0.343584 0.297102 0.393106 0.593766 0.449237 0.022340 0.339967 0.102498 0.366589 -0.067084
！ 0.232033 -0.716342 0.073202 -0.222642 -0.296170 0.188379 -0.636447 -0.309771 0.398905 0.244330 -0.259216 0.508522 0.175054 0.178785 0.068340 -0.107939 -0.024001 -0.025824 -0.285680 0.311891 0.448720 -0.294537 -0.306762 -0.128975 0.076724 0.316986 0.198749 0.401556 -0.112100 0.253866 0.304666 -0.220654 -0.100238 -0.452392 -0.181132 0.062882 -0.111921 -0.252527 0.045258 -0.510560 0.064098 0.127127 0.186246 -0.274623 0.039429 0.079685 -0.028223 0.099696 0.649574 0.216576 -0.291886 -0.357999 0.195595 -0.187320 -0.199947 -0.020956 0.109682 0.392640 -0.033170 0.110269 -0.112020 0.045652 0.524694 0.328947 0.333419 -0.117661 0.215311 0.053466 0.599184 0.199945 0.645154 0.115713 0.123626 0.074835 -0.393812 0.178048 -0.002968 -0.280143 -0.192933 -0.053570 0.042153 0.311267 0.165719 -0.548530 0.023430 -0.450530 0.027910 -0.284171 -0.184333 0.009067 -0.298262 -0.092276 0.175001 0.131492 0.215540 -0.127117 0.013913 0.274665 0.318549 -0.207048
（ 0.223665 -0.484865 0.245278 0.259358 0.000859 0.223530 -0.109636 -0.525280 0.458882 -0.125862 -0.437730 0.360906 0.025489 0.330555 0.249263 -0.219833 -0.174480 0.000436 -0.115663 0.231566 0.329160 -0.170560 -0.369186 -0.452981 -0.038706 0.165798 -0.165669 0.113946 -0.101643 0.113114 0.156945 -0.059653 0.175870 -0.334577 -0.198141 0.010238 -0.210886 0.022439 0.135822 -0.797233 -0.185345 0.170979 0.420779 -0.353001 0.172151 0.224474 -0.350396 0.405431 0.484331 0.121010 -0.355069 -0.038306 0.190015 -0.430065 -0.411965 0.361576 0.315682 0.524670 0.019289 -0.533798 0.141872 -0.109468 0.394360 0.216151 -0.039450 -0.267602 0.364439 -0.005678 0.140054 0.394926 0.359468 0.160636 0.005382 0.362499 -0.318280 0.510089 -0.097641 -0.129014 -0.300651 0.047333 0.116611 -0.080976 -0.037855 -0.369906 -0.425419 -0.441161 -0.359124 -0.240239 0.276171 -0.069222 -0.155158 -0.018296 0.139211 0.300806 -0.217253 -0.424994 0.028799 -0.020599 0.287206 0.011711
） 0.210952 -0.553804 0.246486 0.251063 0.021158 0.260887 -0.108529 -0.435531 0.422271 -0.224191 -0.379117 0.323616 0.037569 0.332998 0.146207 -0.224930 -0.150635 0.151222 -0.094344 0.221490 0.304014 -0.120152 -0.395768 -0.374344 -0.027572 0.275304 -0.064127 0.146397 -0.109065 0.062209 0.162522 0.016981 0.214662 -0.304213 -0.208523 0.018664 -0.172555 0.036299 0.222900 -0.736718 -0.219953 0.194857 0.511452 -0.230482 0.234448 0.241399 -0.401025 0.453453 0.421482 0.167209 -0.356075 -0.136523 0.063884 -0.453109 -0.473403 0.293123 0.420902 0.606279 -0.107617 -0.450865 0.167730 -0.102999 0.293357 0.120131 -0.116372 -0.257135 0.319623 -0.033476 0.125479 0.366598 0.337879 0.208976 -0.055088 0.309491 -0.345392 0.497758 -0.209403 -0.169510 -0.318459 -0.130695 0.114681 -0.016047 -0.012354 -0.347087 -0.426178 -0.448134 -0.379703 -0.225848 0.167992 -0.002190 -0.026941 0.042168 0.106219 0.290261 -0.191263 -0.403635 0.036574 -0.026782 0.322235 0.000152